weights: {-0.7376832365989685, 0.09573083370923996, 0.27120068669319153, 0.32966965436935425, -0.588050127029419, 0.4072917103767395, -0.3047785758972168, 0.10314637422561646, -0.033563755452632904, 0.38234975934028625, 0.19995707273483276, 0.10876203328371048, 0.04040900990366936, 0.4286259114742279, 0.5278589129447937, -0.11785854399204254, -0.4559314548969269, 0.10201910883188248, 0.08145920187234879, 0.4563557207584381, 0.22714659571647644, 0.319743275642395, 0.09830570966005325, 0.4350428581237793, -0.5627998113632202, -0.5236803293228149, 0.1917017549276352, -0.033688608556985855, -0.5325575470924377, 0.30029791593551636, 0.13434436917304993, -0.7501698136329651, -0.32730522751808167, -0.6844851970672607, -0.0641084760427475, 0.16451114416122437, -0.15139786899089813, -0.3456636965274811, -0.11777859926223755, 0.34521088004112244, -0.5743808746337891, 0.4343908131122589, 0.7320302724838257, 0.17848597466945648, 0.6573740243911743, 0.15757210552692413, -0.5903626680374146, -0.1651403158903122, 0.40165621042251587, -0.09358888119459152, 0.3247271776199341, -0.13953235745429993, 0.2765606641769409, 0.3637625575065613, 0.49467456340789795, -0.495144784450531, 0.47929614782333374, -0.00876672938466072, -0.15440353751182556, 0.7586726546287537, -0.5238683819770813, -0.5914322733879089, 0.16696257889270782, -0.2795617878437042, -0.36648130416870117, 0.36383184790611267, -0.2494533509016037, -0.48227623105049133, -0.12631157040596008, -0.3578724265098572, -0.016245968639850616, 0.46007028222084045, -0.2808571457862854, -0.19216251373291016, 0.2990249693393707, 0.14693096280097961, -0.34900301694869995, -0.08129335194826126, 0.005075848661363125, -0.005789179354906082, -0.15041762590408325, -0.3344421982765198, 0.1182306781411171, 0.23558133840560913, 0.41098710894584656, 0.5678979754447937, 0.1342436820268631, 0.3455598056316376, -0.041688598692417145, 0.0089421970769763, 0.2641274333000183, -0.41571182012557983, 0.01243740227073431, -0.2186095118522644, -0.13765987753868103, 0.12252387404441833, 0.3067964017391205, -0.6169621348381042, 0.05235639959573746, 0.006539028137922287, 0.4441847801208496, 0.308676153421402, 0.3436770439147949, -0.09140422940254211, -0.46314969658851624, -0.015472096391022205, -0.09847106039524078, 0.21068783104419708, -0.286175400018692, 0.27313709259033203, 0.3173302710056305, -0.06010647863149643, -0.45738857984542847, 0.19586800038814545, -0.15624091029167175, -0.21429908275604248, -0.2989158630371094, -0.16368819773197174, -0.29635530710220337, -0.034727759659290314, -0.3089030981063843, 0.45087510347366333, 0.641391932964325, 0.17108069360256195, -0.23214039206504822, 0.12339676916599274, -0.09461638331413269, -0.06795211136341095, -0.15960076451301575, -0.2996333837509155, -0.2603709101676941, 0.14198726415634155, -0.24574846029281616, -0.19062063097953796, 0.09806933999061584, -0.13130207359790802, 0.43956810235977173, -0.2581527829170227, 0.44578972458839417, -0.6074826717376709, 0.2512117922306061, -0.3225269019603729, -0.09472556412220001, -0.5514448285102844, -0.055364105850458145, 0.27945762872695923, 0.19782690703868866, 0.11629599332809448, -0.2837720513343811, 0.1323542445898056, 0.14233890175819397, 0.03956342861056328, -0.05349745601415634, -0.258392870426178, 0.29533177614212036, -0.18566851317882538, 0.07773797959089279, 0.4452480673789978, 0.003215228673070669, 0.3412000834941864, -0.1756080687046051, -0.25108420848846436, 0.8611181974411011, 0.23962534964084625, -0.21710418164730072, -0.04697802662849426, -0.8866463899612427, -0.34213438630104065, 0.49221205711364746, -0.4017563462257385, 0.22684378921985626, 0.07987776398658752, 0.3411279022693634, 0.06912559270858765, 0.35567840933799744, 0.7302585244178772, 0.43239858746528625, -0.6741569638252258, -0.10116713494062424, -0.4405362904071808, 0.2569749355316162, -0.4316570460796356, -0.45826220512390137, 0.37928229570388794, -0.30217477679252625, -0.39706921577453613, 0.34132733941078186, 0.13613736629486084, 0.037551041692495346, 0.03973902389407158, 0.6155913472175598, 0.1325341761112213, 0.30853137373924255, 0.07913222908973694, 0.13485857844352722, -0.27011361718177795, -0.12194368243217468, 0.325970858335495, 0.06426963210105896, 0.21128717064857483, 0.20505914092063904, 0.37950965762138367, 0.2811741530895233, 0.2938746511936188, 0.31812307238578796, 0.24257424473762512, -0.0785345733165741, 0.3167780339717865, -0.01976945996284485, 0.3342122733592987, 0.07829833030700684, -0.2587985396385193, 0.2169570028781891, 0.2718038856983185, 0.22905132174491882, -0.2829629182815552, 0.14870807528495789, 0.054825395345687866, 0.32436564564704895, 0.3184078633785248, 0.37635812163352966, 0.14076361060142517, 0.28538283705711365, 0.17509207129478455, -0.1214674785733223, 0.38295266032218933, -0.14789259433746338, 0.1778872162103653, -0.6737958192825317, -0.17620836198329926, -0.03823802247643471, 0.17877443134784698, -0.11450958251953125, 0.3494318425655365, 0.3546225428581238, -0.20244984328746796, -0.41509759426116943, 0.5507279634475708, 0.05583485960960388, -0.13846546411514282, -0.3429703414440155, -0.2929477393627167, 0.10633863508701324, -0.14630843698978424, -0.11367234587669373, -0.11541984975337982, -0.04171665012836456, -0.06880588084459305, -0.23980392515659332, -0.3332382142543793, 0.17460273206233978, -0.1903003603219986, 0.07363836467266083, 0.30739736557006836, -0.4966638684272766, 0.3521084785461426, -0.6986693143844604, 0.16907361149787903, 0.18144726753234863, 0.1475759893655777, 0.46443676948547363, 0.18699988722801208, 0.24500930309295654, 0.06936275213956833, 0.02579391933977604, 0.4807760417461395, 0.1351483017206192, 0.04778025671839714, 0.2874244153499603, -0.13160285353660583, -0.05889706313610077, 0.6575175523757935, -0.07975118607282639, -0.08428118377923965, -0.002770311664789915, 0.22122669219970703, 0.23018234968185425, 0.44145843386650085, 0.21724741160869598, 0.3347463011741638, 0.22907650470733643, 0.32324275374412537, -0.14361070096492767, -0.5186328887939453, 0.11743858456611633, 0.45287051796913147, 0.35792070627212524, 0.23138198256492615, -0.2780453860759735, 0.16367623209953308, 0.29462072253227234, -0.10171037167310715, -0.34191206097602844, 0.055935006588697433, -0.2630188763141632, 0.20438848435878754, 0.1888369917869568, 0.3054474890232086, 0.3052922487258911, 0.17283964157104492, -0.29299166798591614, 0.22716496884822845, -0.18566370010375977, 0.30567559599876404, -0.16731075942516327, -0.06704381108283997, 0.3160015046596527, -0.3333030343055725, 0.011564750224351883, 0.28322798013687134, -0.2652154862880707, 0.02002633921802044, 0.2714231312274933, -0.10664674639701843, 0.027957316488027573, -0.5184376239776611, 0.028287822380661964, -0.14191141724586487, -0.3329024910926819, 0.3358837962150574, -0.3997271656990051, 0.3162539601325989, 0.06505181640386581, 0.13485205173492432, 0.038085076957941055, 0.29002028703689575, 0.35073018074035645, 0.011793218553066254, 0.0842108279466629, -0.06030860170722008, 0.0815848559141159, 0.07020820677280426, 0.3190282881259918, 0.23339857161045074, 0.14690345525741577, 0.7177419662475586, -0.06160639598965645, -0.058847203850746155, 0.1262475848197937, 0.31077176332473755, 0.38894426822662354, 0.4971282184123993, 0.17562830448150635, 0.00724196620285511, -0.0354149304330349, -0.2515701651573181, -0.15651744604110718, -0.10604538023471832, -0.19458168745040894, 0.0329178124666214, -0.13733571767807007, -0.19539585709571838, -0.22128967940807343, 0.42577698826789856, 0.1327323019504547, -0.25554323196411133, -0.32247376441955566, 0.1500149965286255, 0.19152432680130005, 0.2756628692150116, -0.17718489468097687, 0.45895883440971375, 0.16174060106277466, -0.36779019236564636, 0.04126635193824768, 0.1774403154850006, -0.215077206492424, -0.038886576890945435, 0.13393203914165497, 0.013233690522611141, 0.2424381822347641, 0.31560203433036804, -0.1874920278787613, 0.11773902922868729, -0.15935398638248444, -0.1810671091079712, -0.39715898036956787, -0.024462280794978142, 0.5307064652442932, -0.45170843601226807, -0.23692545294761658, 0.30637645721435547, 0.16595090925693512, 0.3292468190193176, 0.21563312411308289, -0.19367855787277222, -0.21539722383022308, 0.30020037293434143, 0.1411309689283371, 0.7408624887466431, -0.11630807816982269, -0.3313716948032379, 0.0843682661652565, -0.17921262979507446, 0.01369238831102848, 0.13854378461837769, -0.3098231554031372, 0.13195538520812988, 0.17927488684654236, -0.08183947950601578, 0.2298707664012909, -0.16272108256816864, 0.368259459733963, 0.19448506832122803, -0.008757508359849453, 0.2510974109172821, -0.04465918615460396, -0.35157355666160583, 0.08689688891172409, -0.15375204384326935, 0.11628255993127823, 0.36305153369903564, -0.4387548267841339, -0.08248725533485413, -0.294651061296463, -0.3512284457683563, -0.7341324687004089, 0.11163175851106644, -0.34761619567871094, 0.32065704464912415, -0.40911683440208435, 0.23908933997154236, -0.05286582186818123, 0.018455062061548233, -0.34594643115997314, 0.62167888879776, 0.014101970009505749, -0.2547900974750519, 0.3492172658443451, 0.17695055902004242, 0.1664063185453415, 0.19060517847537994, -0.26304394006729126, -0.15954412519931793, -0.33594638109207153, 0.3404780328273773, 0.11353735625743866, 0.20210427045822144, -0.2644958794116974, -0.1173274964094162, -0.1788065880537033, -0.20969939231872559, 0.420870304107666, -0.6745167970657349, -0.07719387114048004, -0.30027079582214355, 0.12279531359672546, 0.6145343780517578, 0.3795330822467804, -0.03698469325900078, -0.22701266407966614, -0.07349657267332077, 0.17873233556747437, 0.1354711949825287, 0.4053662419319153, -0.35294434428215027, -0.03364604339003563, 0.14046984910964966, -0.12443732470273972, 0.16745468974113464, 0.3270116448402405, -0.3136565387248993, 0.29197245836257935, 0.11341109126806259, 0.5664743185043335, -0.15725480020046234, -0.5253334045410156, 0.3268236219882965, -0.08669966459274292, 0.4261434078216553, -0.04047927260398865, -0.09579039365053177, 0.0425284281373024, 0.3541788160800934, -0.22625070810317993, 0.178566113114357, 0.1362043023109436, 0.0723317414522171, 0.29320573806762695, -0.03136397898197174, -0.7157847285270691, 0.31358858942985535, -0.18831601738929749, 0.09229699522256851, -0.25956255197525024, -0.12086154520511627, 0.062048766762018204, 0.24332749843597412, 0.301131010055542, 0.4211037755012512, -0.08323513716459274, -0.18113800883293152, 0.32738468050956726, 0.35214924812316895, 0.03322562947869301, 0.5009621977806091, -0.08336131274700165, 0.12932626903057098, 0.13562555611133575, -0.30684134364128113, 0.3843180239200592, 0.04972889646887779, -0.2691900134086609, 0.45864349603652954, 0.1935492306947708, -0.03143119439482689, -0.020470986142754555, -0.34058573842048645, 0.5284913778305054, -0.15724772214889526, 0.0430646687746048, -0.010698989033699036, -0.32972902059555054, 0.22559292614459991, -0.17746147513389587, 0.3067130744457245, -0.16922129690647125, 0.36443573236465454, 0.21622969210147858, 0.15878741443157196, -0.0026841904036700726, 0.4169304668903351, 0.060365110635757446, 0.09564385563135147, -0.13252325356006622, -0.14308197796344757, -0.386347234249115, 0.2317037433385849, -0.21380768716335297, 0.1553700864315033, -0.06605950742959976, 0.0019605436827987432, 0.5069750547409058, 0.20135991275310516, -0.20298126339912415, 0.23022986948490143, -0.02594796195626259, -0.35796335339546204, -0.5171197056770325, -0.19837528467178345, 0.15886451303958893, 0.44231829047203064, 0.07221878319978714, -0.14681734144687653, -0.5420088171958923, 0.5317099094390869, 0.3676570653915405, 0.11300359666347504, 0.1333056390285492, -0.16455189883708954, 0.17105403542518616, 0.2616269588470459, -0.020872442051768303, 0.39967161417007446, 0.2468516081571579, 0.16952311992645264, 0.16418109834194183, 0.006855959538370371, -0.16005870699882507, 0.23859865963459015, -0.18764883279800415, -0.16883981227874756, 0.0014001852832734585, -0.35588499903678894, 0.17318470776081085, 0.24934253096580505, -0.29366055130958557, 0.33826762437820435, -0.33341190218925476, 0.1642705798149109, -0.13462772965431213, -0.11438903212547302, 0.09167617559432983, 0.13189415633678436, 0.14411526918411255, 0.11993595957756042, -0.34037962555885315, -0.15300562977790833, 0.1339567005634308, 0.2864874005317688, 0.21824316680431366, -0.3168972134590149, 0.09572234749794006, 0.04772051051259041, -0.2720995843410492, 0.49532926082611084, 0.1091918870806694, 0.20670144259929657, 0.42924371361732483, -0.04190720617771149, 0.013737671077251434, 0.7633013725280762, 0.2136548012495041, -0.2920004725456238, -0.08070645481348038, -0.025309886783361435, 0.2792152762413025, 0.015306008979678154, 0.0365150012075901, 0.05247706547379494, -0.13962098956108093, -0.3106539845466614, 0.09047289192676544, -0.39784935116767883, -0.010177680291235447, -0.048846978694200516, 0.1172012910246849, 0.009767994284629822, -0.5075455904006958, 0.050906307995319366, 0.1722574084997177, -0.23176521062850952, 0.2000143975019455, 0.011472835205495358, 0.25118890404701233, -0.3297400176525116, -0.07493364065885544, 0.027024049311876297, 0.37243372201919556, -0.1642386019229889, 0.25370848178863525, 0.08415745198726654, -0.045012541115283966, 0.2561437487602234, -0.10763051360845566, -0.23854291439056396, 0.04327334463596344, -0.21072779595851898, 0.43338677287101746, 0.5820687413215637, 0.13160699605941772, -0.02152676321566105, -0.13798904418945312, -0.2642661929130554, 0.1531275361776352, -0.3309912383556366, 0.1604212373495102, 0.40919506549835205, 0.06345655769109726, 0.25629815459251404, 0.2244800329208374, -0.0793154165148735, 0.16061729192733765, -0.2278473824262619, 0.18924447894096375, 0.35777243971824646, -0.017217472195625305, 0.08774098753929138, -0.16351483762264252, -0.05716419965028763, 0.014815131202340126, 0.12454094737768173, -0.08243300020694733, 0.08926419913768768, 0.23985730111598969, -0.20514993369579315, 0.45349088311195374, 0.14390775561332703, 0.28085941076278687, -0.27707934379577637, -0.00862305611371994, -0.045462097972631454, 0.013676298782229424, -0.027825016528367996, 0.057322461158037186, 0.47926729917526245, -0.5890094041824341, 0.4984058439731598, -0.24360179901123047, 0.10870745033025742, 0.09231645613908768, 0.17395739257335663, 0.45598945021629333, 0.15600275993347168, 0.2953799366950989, -0.1210491955280304, -0.19391636550426483, 0.6290919184684753, -0.3851676881313324, -0.04898174852132797, 0.171531543135643, -0.23078832030296326, 0.19234421849250793, -0.060266174376010895, -0.3814065754413605, 0.22454309463500977, -0.09111293405294418, 0.22878523170948029, 0.030412157997488976, -0.0616353377699852, 0.033818647265434265, -0.22959963977336884, 0.49187690019607544, 0.26181188225746155, -0.17721574008464813, -0.5083295106887817, -0.3349687457084656, -0.15137244760990143, -0.3788614869117737, 0.4676190912723541, -0.04844529554247856, 0.15868966281414032, -0.33295783400535583, -0.36022645235061646, -0.7616969347000122, 0.11498959362506866, 0.17274822294712067, -0.22365733981132507, -0.3781239688396454, 0.36443227529525757, 0.05371498316526413, 0.16579724848270416, 0.15086229145526886, 0.5181431770324707, 0.042757730931043625, -0.21575810015201569, 0.13245369493961334, 0.28207287192344666, -0.11102527379989624, 0.1678035855293274, -0.2973865866661072, -0.0005127375479787588, 0.3208569586277008, 0.30399060249328613, 0.13002952933311462, 0.23281525075435638, -0.23040184378623962, -0.16125890612602234, 0.18543457984924316, -0.22197826206684113, 0.4459977447986603, -0.6572777032852173, 0.34547460079193115, 0.2617674767971039, 0.1400938481092453, 0.2347971647977829, -0.060795433819293976, -0.027889976277947426, 0.26821205019950867, -0.14765319228172302, -0.31176427006721497, 0.008109554648399353, 0.11765584349632263, 0.00382897537201643, -0.07299172133207321, 0.3894813656806946, 0.4216759204864502, 0.014204599894583225, -0.3102700114250183, 0.06875311583280563, 0.1233290582895279, -0.12808746099472046, 0.01982692815363407, 0.1418369710445404, -0.4113410711288452, -0.23285354673862457, 0.15269747376441956, 0.3066334128379822, 0.008445031940937042, -0.1677943766117096, 0.14424118399620056, -0.23176205158233643, 0.12050110101699829, -0.355709969997406, 0.10010425001382828, -0.12437168508768082, -0.4950425922870636, 0.4059668481349945, -0.3128092586994171, 0.1097223311662674, -0.04414224997162819, 0.04294651746749878, -0.2174704372882843, 0.28962793946266174, 0.3680501878261566, 0.06481236964464188, 0.23118630051612854, 0.42081785202026367, -0.08839107304811478, 0.10071782767772675, 0.3345336616039276, 0.1352192759513855, 0.11417590081691742, 0.21084588766098022, -0.37542015314102173, -0.02830725722014904, -0.05255397409200668, -0.03154134005308151, 0.30739277601242065, 0.2415073961019516, 0.14010807871818542, -0.06015298143029213, 0.069375179708004, -0.09719749540090561, 0.2110963612794876, -0.20891791582107544, -0.09142595529556274, 0.06828135251998901, 0.11740078777074814, 0.24642665684223175, 0.15905867516994476, -0.1854575127363205, -0.2690992057323456, -0.19013486802577972, 0.4377301335334778, -0.1565498262643814, 0.31963402032852173, -0.2698873281478882, -0.03624090924859047, -0.13576020300388336, -0.04845224320888519, 0.16981782019138336, 0.3552253842353821, -0.24225279688835144, 0.03516550362110138, -0.15050825476646423, 0.2327970415353775, -0.1786567121744156, -0.07759271562099457, 0.02103285677731037, 0.07828506827354431, -0.005890986416488886, 0.051855504512786865, -0.08986358344554901, 0.08284390717744827, 0.043560802936553955, -0.006256548687815666, 0.006593565922230482, -0.2600723206996918, 0.10720693320035934, 0.11382187902927399, -0.4163280129432678, -0.13068856298923492, 0.12867261469364166, -0.5147085189819336, 0.19964714348316193, -0.0035123771522194147, -0.10919385403394699, 0.08701895922422409, -0.23720240592956543, -0.025766024366021156, -0.04420600086450577, -0.09554216265678406, -0.40606310963630676, -0.07196694612503052, 0.0751703754067421, -0.2722196578979492, 0.5192250609397888, 0.014363718219101429, -0.16933080554008484, -0.09688883274793625, -0.08731842786073685, 0.28960469365119934, 0.4852351248264313, 0.21168553829193115, 0.0556621290743351, -0.11580013483762741, -0.2092052400112152, 0.05385877937078476, -0.16355055570602417, -0.18148232996463776, 0.4647578001022339, -0.20425964891910553, -0.30111926794052124, -0.18004275858402252, 0.08822845667600632, 0.4290089011192322, 0.3046269416809082, 0.4090227782726288, 0.03180631995201111, 0.3192228078842163, 0.1973637342453003, -0.09526597708463669, 0.34012508392333984, 0.08803639560937881, -0.30320635437965393, 0.2555784285068512, 0.004353509284555912, 0.30250978469848633, 0.26921746134757996, 0.4761895537376404, -0.015054414048790932, 0.24487538635730743, -0.1900383085012436, -0.19424541294574738, 0.27551746368408203, -0.12450580298900604, 0.3542242646217346, 0.18905740976333618, 0.3562643826007843, 0.01964435912668705, 0.2494123876094818, 0.42055919766426086, -0.06368214637041092, 0.12606094777584076, 0.19814397394657135, 0.10796242952346802, 0.2772730588912964, -0.16536810994148254, 0.03583139553666115, -0.05124147608876228, 0.20877733826637268, 0.36088040471076965, -0.016708986833691597, -0.09686814248561859, 0.21246367692947388, -0.08560420572757721, -0.05915939807891846, -0.04620952904224396, -0.294424831867218, 0.2172395884990692, -0.1790282130241394, 0.4704037606716156, -0.23468969762325287, -0.39638808369636536, 0.24005557596683502, 0.14919517934322357, 0.32014065980911255, -0.16703058779239655, 0.38139408826828003, 0.06467608362436295, 0.2399294227361679, -0.44096899032592773, 0.39828312397003174, -0.0641384869813919, -0.17548462748527527, 0.08258609473705292, 0.15245187282562256, -0.7805477380752563, 0.44857552647590637, 0.11313286423683167, -0.06968565285205841, -0.09919406473636627, 0.26506853103637695, -0.07528369128704071, -0.4527655839920044, 0.09761457145214081, 0.4769590497016907, 0.0040502166375517845, -0.3178483545780182, 0.01620779000222683, -0.13657420873641968, -0.2222996950149536, 0.47684401273727417, -0.3286334276199341, -0.15289460122585297, -0.18260638415813446, -0.04842770844697952, 0.5791803002357483, 0.32625263929367065, 0.23051542043685913, -0.021585578098893166, 0.31727200746536255, -0.23005978763103485, 0.14969655871391296, -0.05557970330119133, 0.14856791496276855, 0.14354895055294037, -0.2530423402786255, -0.18784068524837494, 0.38117244839668274, -0.20474518835544586, -0.0628112331032753, 0.22183269262313843, 0.22093848884105682, 0.12227478623390198, -0.28160661458969116, -0.4444667398929596, 0.1089695394039154, -0.30422019958496094, 0.20238564908504486, 0.013383421115577221, -0.269566148519516, 0.1389595866203308, 0.05948275327682495, -0.028168518096208572, 0.1522866040468216, -0.25747784972190857, 0.29043668508529663, -0.3052310347557068, 0.4484810531139374, 0.4993450343608856, -0.10706985741853714, -0.12328168004751205, -0.12894435226917267, 0.3725017309188843, 0.07802040874958038, 0.27489563822746277, 0.3505604565143585, -0.12841369211673737, 0.4701233506202698, 0.2836834192276001, -0.811953604221344, 0.22475582361221313, -0.23598122596740723, -0.3163747787475586, -0.025690564885735512, -0.25247764587402344, 0.2871335744857788, 0.06479549407958984, -0.33838582038879395, 0.1162041574716568, 0.2376539409160614, 0.028397507965564728, -0.19437383115291595, 0.4820570647716522, -0.36578989028930664, 0.28447631001472473, -0.2553659677505493, -0.08705707639455795, -0.016094082966446877, -0.11859547346830368, 0.35750895738601685, -0.019716404378414154, -0.14236599206924438, -0.18648016452789307, -0.11850268393754959, -0.36425554752349854, 0.29833272099494934, -0.1364833265542984, 0.25307798385620117, 0.2995576560497284, -0.2644958794116974, 0.16825895011425018, -0.3271544277667999, 0.011632533743977547, -0.39528346061706543, -0.3258064091205597, -0.2211458384990692, 0.060251954942941666, -0.10200033336877823, 0.46655407547950745, -0.502481997013092, 0.049571193754673004, -0.02995380014181137, -0.4194500744342804, 0.10483396798372269, 0.5957043170928955, 0.24541381001472473, 0.1522010713815689, 0.20629234611988068, -0.1611882746219635, -0.032038185745477676, 0.2113664150238037, 0.2713710367679596, -0.1160951629281044, 0.06809251755475998, 0.29240506887435913, 0.07865522801876068, -0.001291292835958302, 0.4168142080307007, -0.10597261041402817, -0.2717434763908386, 0.13323931396007538, 0.01301048044115305, 0.4516058564186096, -0.5748663544654846, 0.18212425708770752, -0.14489096403121948, 0.10564523190259933, -0.19786421954631805, -0.30502668023109436, 0.14704382419586182, 0.30446484684944153, 0.020396441221237183, 0.3258931636810303, -0.008111361414194107, 0.13360874354839325, 0.13366739451885223, 0.29916131496429443, -0.3989388346672058, 0.538437008857727, -0.5119694471359253, -0.2802037000656128, 0.3886895179748535, 0.05534488335251808, 0.27322807908058167, 0.06825100630521774, -0.21331903338432312, 0.15069574117660522, -0.39813607931137085, -0.2507335841655731, 0.32646095752716064, -0.27052149176597595, -0.05601048097014427, -0.3077298402786255, -0.16986308991909027, 0.04775714874267578, -0.13054224848747253, 0.4579492211341858, 0.28600791096687317, 0.3010139465332031, 0.2376960963010788, 0.038096558302640915, 0.47447386384010315, -0.02547176368534565, -0.22648927569389343, -0.06465297937393188, -0.11626168340444565, 0.11597421765327454, 0.3258171081542969, -0.14279988408088684, -0.29023581743240356, 0.35732409358024597, 0.16227228939533234, 0.15973107516765594, 0.011769728735089302, 0.03888698294758797, 0.3307752013206482, 0.33542734384536743, 0.20036634802818298, 0.3309679925441742, 0.0799599140882492, 0.11752430349588394, 0.09828028827905655, -0.17211104929447174, -0.2668524384498596, 0.3088635802268982, -0.06750360876321793, -0.11142285913228989, -0.26362890005111694, 0.12003111094236374, -0.15292498469352722, -0.3385147154331207, -0.3821570575237274, -0.1717834621667862, -0.3231329619884491, 0.4793384075164795, 0.18573202192783356, 0.16057217121124268, -0.13101357221603394, -0.2388368397951126, 0.09219857305288315, 0.42643263936042786, 0.1950373649597168, 0.08610304445028305, -0.0754474550485611, -0.01146416924893856, -0.12994378805160522, -0.3497132658958435, -0.12262661755084991, -0.3351297378540039, -0.03769717365503311, 0.3723111152648926, 0.2581261098384857, 0.016041651368141174, 0.095350481569767, -0.08843185007572174, 0.542405366897583, -0.013675092719495296, -0.1814374029636383, 0.4585530757904053, 0.05575153976678848, 0.11784961819648743, 0.16170474886894226, -0.036446474492549896, -0.06853944063186646, 0.5145053267478943, -0.3732035756111145, -0.35822251439094543, 0.0479130819439888, 0.1963689923286438, -0.18028581142425537, -0.35682177543640137, -0.05447741225361824, 0.4781445562839508, 0.12739413976669312, 0.27044641971588135, 0.1872164011001587, -0.05490625277161598, 0.5406600832939148, 0.14729629456996918, 0.2798237204551697, 0.1275576949119568, -0.2252882570028305, 0.22691208124160767, 0.2848217189311981, 0.0014677571598440409, -0.11731454730033875, 0.013605437241494656, -0.24087969958782196, -0.07762400060892105, -0.162577822804451, -0.29907017946243286, -0.09358818829059601, 0.009879310615360737, 0.17868097126483917, -0.052284274250268936, -0.5126221776008606, 0.43821775913238525, -0.06538381427526474, 0.08397018909454346, -0.27800092101097107, 0.28038540482521057, 0.4558165967464447, 0.3045007586479187, -0.10809724032878876, 0.06116047874093056, 0.032445527613162994, 0.17082422971725464, -0.00022320891730487347, -0.25496169924736023, 0.04035041108727455, 0.19968374073505402, 0.26052480936050415, 0.22139278054237366, -0.16250799596309662, 0.1976354867219925, 0.15229211747646332, -0.4230670928955078, 0.13902844488620758, -0.24502809345722198, 0.19368484616279602, 0.12475127726793289, -0.15994314849376678, 0.3141651749610901, -0.43257656693458557, 0.43281400203704834, -0.4393672049045563, 0.11753533780574799, -0.4317488968372345, 0.02250366285443306, 0.02928769774734974, 0.3761380910873413, -0.09705914556980133, 0.14691194891929626, 0.03199886903166771, 0.14046359062194824, -0.16240549087524414, 0.5505331158638, 0.35941416025161743, -0.09163663536310196, 0.025337878614664078, 0.1356860250234604, 0.05068819597363472, 0.13052092492580414, -0.21257765591144562, -0.006634573917835951, 0.07215157151222229, -0.35892143845558167, 0.2810556888580322, -0.4680491089820862, 0.4660671651363373, 0.09393112361431122, -0.06562548875808716, -0.2553345561027527, -0.10601328313350677, 0.40427643060684204, 0.10308577865362167, 0.7812101244926453, -0.4421462416648865, -0.6571396589279175, -0.46392232179641724, 0.4688456356525421, -0.6310392618179321, 0.5003989934921265, 0.1375199407339096, -0.14394399523735046, -0.37009692192077637, -0.4183109998703003, -0.2607271373271942, -0.2527162432670593, 0.31412017345428467, -0.08841468393802643, -0.2097998559474945, 0.6910876035690308, -0.29415571689605713, -0.5284621715545654, -0.2470599263906479, 0.05852750688791275, -0.5135981440544128, 0.5057544708251953, -0.4761972725391388, -0.768551230430603, 0.4361557960510254, 0.20146752893924713, -0.5880287289619446, 0.2717806100845337, -0.4834340810775757, -0.4123191237449646, 0.4813695251941681, 0.43441489338874817, 0.04177816957235336, 0.6003413200378418, 0.17011435329914093, -0.03336891159415245, 0.19229811429977417, -0.2373328059911728, -0.41811108589172363, -0.765937864780426, -0.07941567897796631, 0.3960206210613251, 0.33122333884239197, 0.565573513507843, -1.0608527660369873, 0.1220114529132843, -0.10584967583417892, 0.4243042469024658, 0.24960678815841675, -0.7085993885993958, 0.20589962601661682, -0.41316401958465576, -0.14016415178775787, 0.23571115732192993, 0.016161076724529266, 0.07619651407003403, -0.323604017496109, 0.22967267036437988, -0.5577195882797241, -0.9332220554351807, -0.32778438925743103, 0.42955613136291504, 0.38445284962654114, 0.38649454712867737, -0.4267037808895111, 0.4799874722957611, -0.34197568893432617, 0.023598654195666313, 0.41223564743995667, 0.5282464623451233, -0.4608500599861145, 0.18646933138370514, 0.2521588206291199, -0.5047590136528015, -1.324383020401001, 0.35988834500312805, 0.0035874908789992332, 0.3763614594936371, -0.7883886694908142, 0.624086320400238, -0.49322745203971863, 0.4517773985862732, 0.07885660231113434, -0.27299147844314575, -0.292753130197525, 0.27706366777420044, 0.26723092794418335, 0.19325673580169678, -0.3320322632789612, -0.480497807264328, 0.39699527621269226, -0.1784982681274414, -0.020428026095032692, -0.004460877273231745, 0.018910663202404976, -0.18745733797550201, -0.3367723822593689, 0.4023640751838684, -0.6176028847694397, -0.41272249817848206, 0.48356685042381287, -0.2306959182024002, 0.23472626507282257, -0.3104405999183655, -0.0003514423151500523, 0.39359617233276367, 0.1575210839509964, 0.34857603907585144, 0.3553396165370941, 0.18166884779930115, -0.3575917184352875, -0.40531447529792786, -0.32014647126197815, -0.5591220259666443, -0.9711462259292603, -0.4890565872192383, 0.4533231854438782, 0.4925941526889801, 0.16072268784046173, -0.17925772070884705, -0.41982385516166687, -0.1471402496099472, -0.028735222294926643, -0.2804962992668152, 0.5099306106567383, -0.8252291679382324, 0.480482816696167, 0.20378713309764862, 0.5516470074653625, -0.010655482299625874, -0.04940264672040939, -0.6842966675758362, -0.9915436506271362, -0.5691837072372437, 0.7490115165710449, -0.24747559428215027, 0.168618306517601, -0.5731050372123718, 0.49446234107017517, -0.7335260510444641, -0.35404253005981445, -0.09004492312669754, 0.3177148103713989, -0.4098432958126068, -1.1752952337265015, 0.6286319494247437, 0.16157566010951996, -0.299644410610199, -0.4009385406970978, -0.045483142137527466, -0.7100051045417786, 0.540335476398468, 0.2178274244070053, 0.5704913139343262, -0.7999582886695862, -0.2903943359851837, -0.36272132396698, -0.019865309819579124}

biases: {0.2580094337463379, -0.06431383639574051, 0.04036557301878929, 0.04881642758846283, 0.24395045638084412, 0.30785053968429565, 0.06259110569953918, 0.5414444208145142, 0.12631171941757202, -0.09266103059053421, -0.1520279347896576, -0.1092681735754013, 0.12932099401950836, 0.5503612160682678, 0.2516763210296631, 0.07022164762020111, -0.09288682043552399, 0.015008575282990932, 0.36776867508888245, -0.2526920437812805, 0.2709805369377136, 0.4836978316307068, -0.09453718364238739, 0.4984944760799408, 0.25089624524116516, 0.1817033439874649, -0.25059404969215393, 0.18063969910144806, 0.07832606136798859, 0.24390199780464172, -0.07173503190279007, 0.01811600662767887, 0.271506667137146, -0.0522884801030159, -0.000277007493423298, -0.12799151241779327, 0.2799747586250305, 0.21468691527843475, -0.15320365130901337, -0.082448810338974, 0.04196050018072128, -0.07720760256052017, -0.1426922082901001, -0.14467878639698029, 0.0955674946308136, 0.09588826447725296, 0.15596263110637665, -0.08585382997989655, 0.3850439786911011, -0.03723235800862312, -0.0875137448310852, 0.018757790327072144, -0.031082497909665108, 0.10708256810903549, -0.04797473922371864, 0.08401532471179962, -0.05085711553692818, 0.4000258147716522, 0.09607898443937302, 0.30634039640426636, -0.004376976750791073, 0.04432221129536629, 0.3105435371398926, -0.03272145241498947, -0.1707070916891098, 0.23440422117710114, -0.07379378378391266, -0.009373456239700317, -0.07058864831924438}

Architecture: {7, 32, 32, 5}